{
    "type": "NeuralNetwork",
    "sizes": [
        24,
        12,
        3
    ],
    "layers": [
        {
            "weights": [],
            "biases": []
        },
        {
            "weights": [
                [
                    -0.04745124652981758,
                    -0.38689297437667847,
                    -0.1474207490682602,
                    0.306233286857605,
                    -0.35113582015037537,
                    -0.26825398206710815,
                    -0.02642226032912731,
                    0.299950510263443,
                    0.34552451968193054,
                    0.23952355980873108,
                    -0.5713289976119995,
                    -0.9565207958221436,
                    0.33127301931381226,
                    -0.2869047522544861,
                    -0.8473659753799438,
                    0.3003517985343933,
                    0.0690922662615776,
                    0.09628284722566605,
                    0.41701585054397583,
                    -0.2676580250263214,
                    -0.6460188627243042,
                    -0.3109992444515228,
                    0.022940004244446754,
                    0.34789642691612244
                ],
                [
                    -0.1590859293937683,
                    0.13154104351997375,
                    0.4982776641845703,
                    -1.3476059436798096,
                    -0.1827213019132614,
                    0.06143159419298172,
                    0.6609641313552856,
                    0.15303711593151093,
                    0.12819364666938782,
                    -1.447925090789795,
                    -0.13929040729999542,
                    0.2076522558927536,
                    -1.748806118965149,
                    -0.17290739715099335,
                    0.06066998466849327,
                    0.9189825057983398,
                    0.6576330661773682,
                    0.3641713857650757,
                    -1.746099591255188,
                    -0.20666657388210297,
                    0.2507217228412628,
                    -0.7332509160041809,
                    0.16861651837825775,
                    0.32650622725486755
                ],
                [
                    -0.5855391025543213,
                    -0.10882923752069473,
                    0.21610257029533386,
                    -1.553012728691101,
                    -1.4778012037277222,
                    -1.0816702842712402,
                    -0.1219838485121727,
                    0.06129619479179382,
                    0.24186623096466064,
                    -1.9241290092468262,
                    -1.8826184272766113,
                    -1.197116494178772,
                    -1.730963945388794,
                    -1.36611807346344,
                    -1.6006152629852295,
                    -0.21729718148708344,
                    -0.42241406440734863,
                    0.020593788474798203,
                    -1.3375643491744995,
                    -1.5490370988845825,
                    -1.2153186798095703,
                    0.03323977813124657,
                    0.25708886981010437,
                    -0.07247477024793625
                ],
                [
                    -0.11378861963748932,
                    0.8033607602119446,
                    0.8861961960792542,
                    -0.6683329343795776,
                    -0.2537871301174164,
                    -0.626092791557312,
                    0.010224672965705395,
                    0.31312716007232666,
                    0.21792370080947876,
                    -0.419185996055603,
                    -0.6457635760307312,
                    -1.0735676288604736,
                    -0.5110348463058472,
                    -0.47374409437179565,
                    -1.5008203983306885,
                    0.07805896550416946,
                    0.26539769768714905,
                    0.15817315876483917,
                    -0.47146186232566833,
                    -0.3550848960876465,
                    -0.95740807056427,
                    -0.2588021755218506,
                    0.24089494347572327,
                    0.13836602866649628
                ],
                [
                    0.3753383159637451,
                    -0.3964731991291046,
                    0.049215395003557205,
                    0.4737967550754547,
                    -0.5628975629806519,
                    0.7969117760658264,
                    -0.42149168252944946,
                    -0.4944736361503601,
                    -0.17453356087207794,
                    0.58718341588974,
                    -0.15290537476539612,
                    0.8028411865234375,
                    0.5821561813354492,
                    -0.4877164661884308,
                    0.915486216545105,
                    -0.17587612569332123,
                    -0.23330993950366974,
                    0.16064797341823578,
                    0.2823677361011505,
                    -0.5172757506370544,
                    1.095935583114624,
                    -0.19056710600852966,
                    -0.9073646664619446,
                    -0.15458820760250092
                ],
                [
                    -0.0023898547515273094,
                    -0.3302763104438782,
                    1.2137864828109741,
                    -0.116773322224617,
                    -0.9608548283576965,
                    -0.4200703203678131,
                    0.48916390538215637,
                    0.03667162358760834,
                    0.49070656299591064,
                    -0.12893414497375488,
                    -1.5156084299087524,
                    -0.6214874982833862,
                    -0.22465278208255768,
                    -1.5290026664733887,
                    -0.7973944544792175,
                    0.7318402528762817,
                    -0.5329672694206238,
                    0.5092594623565674,
                    -0.09579408168792725,
                    -1.3120017051696777,
                    -0.30661851167678833,
                    0.18205158412456512,
                    -0.19996929168701172,
                    1.0770518779754639
                ],
                [
                    -0.6995443105697632,
                    -0.08518371731042862,
                    -0.8169648051261902,
                    0.882588803768158,
                    0.8957893252372742,
                    0.20289620757102966,
                    -1.1823151111602783,
                    -0.0925968661904335,
                    -0.27970895171165466,
                    0.43349799513816833,
                    0.65216463804245,
                    -0.1359158754348755,
                    0.7632966637611389,
                    0.8381215333938599,
                    -0.32136452198028564,
                    -1.2568058967590332,
                    0.4280768632888794,
                    0.14102450013160706,
                    0.5851352214813232,
                    0.8335264325141907,
                    0.31484726071357727,
                    -1.2529679536819458,
                    -0.9530208706855774,
                    -1.0652447938919067
                ],
                [
                    0.8004583716392517,
                    0.23037846386432648,
                    0.21577779948711395,
                    0.7190792560577393,
                    0.059957973659038544,
                    -0.696103036403656,
                    -0.8855341076850891,
                    0.1966891884803772,
                    0.08238588273525238,
                    1.4251757860183716,
                    0.7444148063659668,
                    -0.1368618607521057,
                    1.1904608011245728,
                    0.2550119459629059,
                    -0.47209298610687256,
                    -0.7837202548980713,
                    0.09232740849256516,
                    0.2667495012283325,
                    0.9026522040367126,
                    0.1926317662000656,
                    -0.40478891134262085,
                    -0.01320749893784523,
                    0.2525751292705536,
                    0.15293611586093903
                ],
                [
                    -0.7718266248703003,
                    -0.2311178743839264,
                    -0.5158071517944336,
                    0.24605128169059753,
                    0.8447040319442749,
                    1.2941532135009766,
                    0.10884298384189606,
                    0.3129514455795288,
                    0.20516319572925568,
                    -0.2405678778886795,
                    0.6899410486221313,
                    0.44474318623542786,
                    1.4643343687057495,
                    1.1656699180603027,
                    0.8845165371894836,
                    -0.7376578450202942,
                    -0.026090165600180626,
                    -0.3178101181983948,
                    0.6427419781684875,
                    0.7295753359794617,
                    0.6178960800170898,
                    0.4984970986843109,
                    0.06681060045957565,
                    -0.2767641544342041
                ],
                [
                    0.18406815826892853,
                    -0.575206995010376,
                    -0.32679346203804016,
                    -0.4074701964855194,
                    -0.16333287954330444,
                    1.0637025833129883,
                    0.3553810119628906,
                    -0.14067824184894562,
                    -0.020388945937156677,
                    -1.1836260557174683,
                    -0.3645244538784027,
                    0.7770167589187622,
                    -1.1794768571853638,
                    -0.5431647300720215,
                    1.2016373872756958,
                    -0.20577925443649292,
                    -0.1966446340084076,
                    -0.09280635416507721,
                    -0.81402188539505,
                    0.10021030902862549,
                    1.6944695711135864,
                    -0.5902811288833618,
                    -0.6707773208618164,
                    -0.414598286151886
                ],
                [
                    -0.02460406720638275,
                    0.5681229829788208,
                    0.7286691665649414,
                    -0.8833888173103333,
                    -0.7498282194137573,
                    -0.7463691830635071,
                    -0.32119038701057434,
                    0.12689591944217682,
                    -0.16016221046447754,
                    -0.6766823530197144,
                    -0.6949301362037659,
                    -0.21838004887104034,
                    -1.0123547315597534,
                    -0.580839991569519,
                    -0.9972953796386719,
                    0.40958067774772644,
                    0.12997254729270935,
                    0.44492679834365845,
                    -0.6688014268875122,
                    -0.3497289717197418,
                    -0.8854100108146667,
                    -0.2699643671512604,
                    0.23961104452610016,
                    0.6108419299125671
                ],
                [
                    -0.6287568807601929,
                    -0.48275041580200195,
                    0.4222494959831238,
                    -0.2158336490392685,
                    -0.5644301176071167,
                    -0.9289172887802124,
                    1.070136547088623,
                    0.35322296619415283,
                    0.38542547821998596,
                    -0.6178981065750122,
                    -1.1079374551773071,
                    -0.7904873490333557,
                    -0.6513159871101379,
                    -0.9673205018043518,
                    -0.8337672352790833,
                    0.6931361556053162,
                    -0.14419488608837128,
                    0.3409857749938965,
                    -0.6303462982177734,
                    -0.658242404460907,
                    -0.8803074955940247,
                    -0.6216670274734497,
                    -0.05851290747523308,
                    0.7651264071464539
                ]
            ],
            "biases": [
                0.2333858758211136,
                4.468662738800049,
                0.791725754737854,
                0.27946770191192627,
                -1.4953038692474365,
                -0.20301063358783722,
                -1.6478064060211182,
                -4.317338943481445,
                -5.951872825622559,
                -0.9171704053878784,
                0.36360737681388855,
                3.711002826690674
            ]
        },
        {
            "weights": [
                [
                    1.4325149059295654,
                    -3.237330198287964,
                    -2.718167304992676,
                    -0.753168523311615,
                    1.6299654245376587,
                    0.6322258114814758,
                    2.2095072269439697,
                    3.864818572998047,
                    2.2364730834960938,
                    -1.860347032546997,
                    -1.2178577184677124,
                    -0.37499916553497314
                ],
                [
                    -0.9299941658973694,
                    0.5982908010482788,
                    -2.2711126804351807,
                    -0.3991272449493408,
                    -1.1796079874038696,
                    -2.5855064392089844,
                    1.9575090408325195,
                    0.7017833590507507,
                    1.7044005393981934,
                    -0.02083757519721985,
                    -0.7138955593109131,
                    -1.365370512008667
                ],
                [
                    -1.5920767784118652,
                    0.624127209186554,
                    -2.3433213233947754,
                    -1.7933465242385864,
                    1.6601054668426514,
                    -0.4590860903263092,
                    -0.6170730590820312,
                    -1.0095447301864624,
                    1.8357300758361816,
                    3.2281346321105957,
                    -1.0837851762771606,
                    -1.4360861778259277
                ]
            ],
            "biases": [
                1.8377056121826172,
                0.8353109359741211,
                0.3152482509613037
            ]
        }
    ],
    "inputLookup": null,
    "inputLookupLength": 0,
    "outputLookup": null,
    "outputLookupLength": 0,
    "options": {
        "inputSize": 0,
        "outputSize": 0,
        "binaryThresh": 0.5
    },
    "trainOpts": {
        "activation": "sigmoid",
        "iterations": 20000,
        "errorThresh": 0.005,
        "log": false,
        "logPeriod": 10,
        "leakyReluAlpha": 0.01,
        "learningRate": 0.3,
        "momentum": 0.1,
        "callbackPeriod": 10,
        "timeout": "Infinity",
        "beta1": 0.9,
        "beta2": 0.999,
        "epsilon": 1e-8
    }
}